/*!
 * The following copyright notice may not be removed under any circumstances.
 * 
 * Copyright:
 * Copyright (c) 1990 Neufville SL, Copyright (c) 1990-2000 ParaType, Inc. All
 * Rights Reserved. Futura is a registered trade mark of Neufville SL.
 */
Cufon.registerFont({"w":568,"face":{"font-family":"FuturaBookC","font-weight":400,"font-stretch":"normal","units-per-em":"1000","panose-1":"2 0 5 3 0 0 0 0 0 0","ascent":"800","descent":"-200","x-height":"12","bbox":"-46 -841 950 250","underline-thickness":"50","underline-position":"-100","stemh":"66","stemv":"72","unicode-range":"U+0020-U+0451"},"glyphs":{" ":{"w":233},"!":{"d":"176,-135r-72,0r0,-532r72,0r0,532xm90,-40v0,-27,23,-50,50,-50v27,0,50,23,50,50v0,27,-23,50,-50,50v-27,0,-50,-23,-50,-50","w":280},"\"":{"d":"134,-667r-13,268r-54,0r-13,-268r80,0xm276,-667r-13,268r-54,0r-13,-268r80,0","w":330},"#":{"d":"394,0r-73,0r32,-207r-136,0r-32,207r-73,0r32,-207r-110,0r10,-66r110,0r20,-133r-110,0r10,-66r110,0r30,-195r73,0r-30,195r136,0r30,-195r73,0r-30,195r110,0r-10,66r-110,0r-20,133r110,0r-10,66r-110,0xm363,-273r20,-133r-136,0r-20,133r136,0","w":600},"$":{"d":"267,-332v-55,-19,-156,-85,-156,-174v0,-95,70,-162,156,-170r0,-87r60,0r0,87v53,2,121,54,140,102r-59,39v-13,-30,-49,-68,-81,-71r0,222v89,33,164,85,164,191v0,90,-57,184,-164,201r0,93r-60,0r0,-89v-110,-5,-169,-84,-190,-172r72,-20v4,64,66,122,118,122r0,-274xm327,-304r0,242v86,-18,114,-153,56,-207v-16,-14,-41,-29,-56,-35xm267,-411r0,-195v-77,12,-109,104,-57,159v14,14,37,28,57,36"},"%":{"d":"178,-673v81,0,145,64,145,145v0,81,-64,145,-145,145v-81,0,-145,-64,-145,-145v0,-81,64,-145,145,-145xm178,-438v49,0,85,-41,85,-90v0,-49,-36,-90,-85,-90v-47,0,-85,40,-85,90v0,50,38,90,85,90xm141,-10r389,-670r39,22r-389,671xm532,-283v81,0,145,64,145,145v0,81,-64,145,-145,145v-81,0,-145,-64,-145,-145v0,-81,64,-145,145,-145xm532,-48v49,0,85,-41,85,-90v0,-49,-36,-90,-85,-90v-47,0,-85,40,-85,90v0,50,38,90,85,90","w":710},"&":{"d":"54,-173v-1,-134,118,-178,172,-221v-45,-58,-66,-98,-66,-143v0,-70,49,-141,145,-141v93,0,141,67,141,134v0,31,-9,75,-62,121v-17,15,-11,7,-54,43r139,179v36,-38,57,-62,76,-88r54,45v-18,25,-44,57,-85,99r112,145r-92,0r-72,-93v-58,58,-139,105,-215,105v-109,0,-193,-79,-193,-185xm417,-148r-148,-191v-49,30,-75,52,-94,69v-19,17,-47,44,-47,96v0,66,49,118,118,118v71,0,146,-68,171,-92xm230,-541v0,50,37,74,57,107v32,-23,99,-74,89,-111v0,-47,-37,-69,-72,-69v-41,0,-74,31,-74,73","w":636},"'":{"d":"134,-667r-13,268r-54,0r-13,-268r80,0","w":188},"(":{"d":"167,180v-51,-156,-87,-184,-87,-457v0,-273,36,-299,87,-457r63,29v-28,74,-43,135,-46,149v-11,45,-30,142,-30,279v0,259,13,236,76,428","w":294},")":{"d":"127,-734v51,156,87,184,87,457v0,273,-36,299,-87,457r-63,-29v28,-74,43,-135,46,-149v11,-45,30,-142,30,-279v0,-259,-13,-236,-76,-428","w":294},"*":{"d":"139,-648r116,43r-5,-124r68,0r-5,124r116,-43r21,63r-120,34r77,97r-54,39r-69,-103r-69,103r-54,-39r77,-97r-120,-34"},"+":{"d":"33,-300r0,-66r181,0r0,-172r72,0r0,172r181,0r0,66r-181,0r0,172r-72,0r0,-172r-181,0","w":500},",":{"d":"24,133r82,-231r66,24r-101,226","w":274},"-":{"d":"40,-176r0,-74r220,0r0,74r-220,0","w":300},".":{"d":"64,-40v0,-27,23,-50,50,-50v27,0,50,23,50,50v0,27,-23,50,-50,50v-27,0,-50,-23,-50,-50","w":228},"\/":{"d":"0,152r502,-902r58,30r-502,900","w":580},"0":{"d":"284,12v-53,0,-119,-27,-171,-100v-88,-124,-88,-366,0,-490v52,-73,118,-100,171,-100v53,0,119,27,171,100v88,124,88,366,0,490v-52,73,-118,100,-171,100xm284,-610v-34,0,-81,17,-115,74v-69,116,-68,290,0,406v33,57,81,74,115,74v34,0,81,-17,115,-74v69,-116,68,-290,0,-406v-33,-57,-81,-74,-115,-74"},"1":{"d":"266,0r0,-597r-112,0r39,-70r147,0r0,667r-74,0"},"2":{"d":"275,-610v-75,0,-132,53,-133,138r-74,0v3,-67,24,-108,50,-138v28,-32,75,-68,158,-68v118,0,206,84,206,199v0,90,-95,199,-144,254r-139,157r282,0r0,68r-431,0r243,-281v36,-42,115,-133,115,-199v0,-75,-54,-130,-133,-130"},"3":{"d":"272,-610v-51,0,-112,45,-112,108r-74,0v2,-37,14,-71,31,-98v44,-69,115,-78,155,-78v126,0,188,88,188,180v0,48,-18,114,-86,148v23,9,96,46,96,161v0,219,-306,279,-391,86v-10,-24,-14,-46,-15,-70r74,0v6,68,58,117,127,117v127,0,187,-186,65,-247v-21,-10,-50,-15,-76,-14r0,-66v26,2,55,-3,76,-14v21,-11,56,-39,56,-99v0,-59,-32,-114,-114,-114"},"4":{"d":"436,-704r0,527r82,0r0,68r-82,0r0,109r-74,0r0,-109r-342,0xm151,-177r211,0r0,-301"},"5":{"d":"93,-150v28,50,78,94,153,94v94,0,164,-77,164,-171v0,-96,-69,-164,-164,-164v-24,0,-69,4,-129,46r97,-322r265,0r0,68r-214,0r-43,144v156,-26,262,84,262,227v0,210,-240,309,-392,188v-22,-17,-42,-41,-58,-68"},"6":{"d":"336,-683r56,42r-153,213v151,-41,275,69,275,211v0,133,-96,229,-229,229v-157,0,-231,-122,-231,-227v0,-25,5,-83,55,-153xm284,-56v92,0,156,-69,156,-159v0,-89,-66,-154,-157,-154v-91,0,-155,67,-155,154v0,89,63,159,156,159"},"7":{"d":"52,-23r379,-576r-365,0r0,-68r490,0r-446,683"},"8":{"d":"387,-347v170,77,120,359,-103,359v-223,0,-273,-282,-103,-359v-142,-81,-90,-331,103,-331v193,0,245,249,103,331xm284,-377v65,0,114,-49,114,-115v0,-73,-53,-118,-114,-118v-61,0,-114,45,-114,118v0,66,49,115,114,115xm284,-56v77,0,130,-54,130,-130v0,-75,-54,-127,-130,-127v-76,0,-130,52,-130,127v0,76,53,130,130,130"},"9":{"d":"232,16r-56,-41r153,-213v-151,41,-275,-69,-275,-211v0,-133,96,-229,229,-229v157,0,231,122,231,227v0,25,-5,84,-55,153xm284,-610v-92,0,-156,69,-156,159v0,89,66,154,157,154v91,0,155,-67,155,-154v0,-89,-63,-159,-156,-159"},":":{"d":"64,-375v0,-27,23,-50,50,-50v27,0,50,23,50,50v0,27,-23,50,-50,50v-27,0,-50,-23,-50,-50xm64,-40v0,-27,23,-50,50,-50v27,0,50,23,50,50v0,27,-23,50,-50,50v-27,0,-50,-23,-50,-50","w":228},";":{"d":"78,-375v0,-27,23,-50,50,-50v27,0,50,23,50,50v0,27,-23,50,-50,50v-27,0,-50,-23,-50,-50xm24,133r82,-231r66,24r-101,226","w":274},"<":{"d":"110,-330r357,162r0,72r-434,-203r0,-62r434,-203r0,72","w":500},"=":{"d":"33,-384r0,-66r434,0r0,66r-434,0xm33,-230r0,-66r434,0r0,66r-434,0","w":500},">":{"d":"390,-330r-357,-162r0,-72r434,203r0,62r-434,203r0,-72","w":500},"?":{"d":"217,-201v44,0,74,-43,72,-85r72,0v4,89,-59,153,-143,153v-85,0,-145,-62,-145,-144v0,-122,86,-118,168,-151v30,-12,64,-31,64,-87v0,-59,-33,-92,-88,-92v-8,0,-88,2,-88,92v0,11,2,24,6,38r-74,0v-23,-119,49,-198,156,-198v115,0,162,82,162,159v0,38,-13,114,-111,150v-53,19,-121,18,-121,94v0,43,30,71,70,71xm168,-40v0,-27,23,-50,50,-50v27,0,50,23,50,50v0,27,-23,50,-50,50v-27,0,-50,-23,-50,-50","w":436},"@":{"d":"480,-427r13,-64r52,0v-28,118,-47,229,-47,249v0,23,1,54,37,54v47,0,113,-72,113,-191v0,-151,-121,-249,-267,-249v-166,0,-297,132,-297,298v0,126,76,295,306,295v47,0,121,-5,209,-46r15,46v-81,39,-165,48,-225,48v-207,0,-356,-141,-356,-344v0,-193,152,-345,347,-345v170,0,316,117,316,296v0,139,-84,236,-163,236v-41,0,-70,-27,-73,-67v-9,14,-49,71,-125,71v-86,0,-140,-72,-140,-161v0,-107,71,-203,175,-203v61,0,96,36,110,77xm346,-194v71,0,115,-78,115,-159v0,-70,-43,-97,-86,-97v-70,0,-122,72,-122,147v0,72,46,109,93,109","w":733},"A":{"d":"532,0r-78,-188r-284,0r-80,188r-82,0r307,-699r299,699r-82,0xm199,-258r226,0r-112,-267","w":622},"B":{"d":"86,-667v114,5,184,-20,273,42v22,15,60,57,60,138v0,33,-7,91,-66,131v158,39,157,238,59,312v-97,73,-192,36,-326,44r0,-667xm160,-597r0,223r56,0v39,0,131,-8,131,-111v0,-110,-108,-112,-129,-112r-58,0xm245,-70v85,6,162,-35,161,-120v0,-53,-32,-82,-57,-98v-35,-22,-122,-20,-189,-20r0,238r85,0","w":530},"C":{"d":"395,-58v79,0,171,-53,201,-87r0,92v-245,171,-546,-10,-546,-278v0,-199,149,-347,349,-347v40,0,117,5,197,66r0,92v-41,-43,-119,-88,-202,-88v-154,0,-268,124,-268,278v0,181,147,272,269,272","w":646},"D":{"d":"86,0r0,-667v167,4,251,-24,382,78v63,49,114,136,114,256v0,140,-69,215,-117,256v-61,52,-125,77,-244,77r-135,0xm160,-597r0,527v108,-1,165,10,256,-60v52,-40,90,-108,90,-203v-1,-182,-137,-282,-346,-264","w":632},"E":{"d":"432,-667r0,70r-272,0r0,198r264,0r0,70r-264,0r0,259r272,0r0,70r-346,0r0,-667r346,0","w":482},"F":{"d":"390,-667r0,70r-230,0r0,197r222,0r0,70r-222,0r0,330r-74,0r0,-667r304,0","w":434},"G":{"d":"624,-483v-56,-70,-94,-125,-225,-125v-161,0,-273,121,-273,276v0,286,356,359,475,162v12,-21,25,-53,27,-95r-198,0r0,-70r278,0v2,87,-19,164,-64,227v-20,27,-95,120,-248,120v-198,0,-346,-151,-346,-345v0,-194,149,-345,348,-345v64,0,139,16,204,66v30,23,58,53,77,79","w":758},"H":{"d":"160,-667r0,271r342,0r0,-271r74,0r0,667r-74,0r0,-326r-342,0r0,326r-74,0r0,-667r74,0","w":662},"I":{"d":"86,-667r74,0r0,667r-74,0r0,-667","w":246},"J":{"d":"72,-1v71,0,74,-51,74,-127r0,-539r74,0r0,539v0,70,-4,138,-65,173v-74,42,-119,37,-201,-25r41,-58v23,21,45,37,77,37","w":306},"K":{"d":"160,-667r0,286r284,-286r100,0r-312,311r322,356r-102,0r-273,-306r-19,19r0,287r-74,0r0,-667r74,0"},"L":{"d":"86,-667r74,0r0,597r184,0r0,70r-258,0r0,-667","w":358},"M":{"d":"139,0r-76,0r111,-704r256,563r261,-564r104,705r-76,0r-63,-464r-227,492r-224,-492","w":863},"N":{"d":"160,0r-74,0r0,-695r520,545r0,-517r74,0r0,697r-520,-545r0,515","w":766},"O":{"d":"397,12v-193,0,-347,-147,-347,-345v0,-199,155,-345,347,-345v192,0,347,146,347,345v0,198,-154,345,-347,345xm397,-608v-150,0,-271,122,-271,275v0,153,121,275,271,275v150,0,271,-122,271,-275v0,-153,-121,-275,-271,-275","w":794},"P":{"d":"86,-667v115,2,221,-13,289,47v48,43,61,101,61,143v0,94,-59,187,-211,187r-65,0r0,290r-74,0r0,-667xm160,-597r0,237v114,9,202,-22,202,-121v0,-106,-99,-116,-147,-116r-55,0","w":456},"Q":{"d":"652,7r-54,-56v-28,19,-95,61,-201,61v-192,0,-347,-147,-347,-345v0,-199,155,-345,347,-345v191,0,347,146,347,345v0,122,-55,198,-94,239r98,101r-96,0xm480,-268r117,120v25,-27,71,-87,71,-185v0,-153,-122,-275,-271,-275v-150,0,-271,122,-271,275v0,208,229,353,419,231r-161,-166r96,0","w":794},"R":{"d":"86,-667v108,3,184,-15,269,37v40,25,73,77,73,148v0,102,-67,177,-168,184r212,298r-90,0r-203,-292r-19,0r0,292r-74,0r0,-667xm160,-597r0,239v112,8,194,-28,194,-122v0,-37,-11,-74,-53,-98v-43,-24,-85,-18,-141,-19","w":502},"S":{"d":"122,-180v8,70,67,122,136,122v125,0,176,-138,101,-210v-82,-78,-268,-77,-275,-238v-6,-143,176,-218,294,-142v27,18,50,45,65,74r-59,39v-25,-41,-43,-68,-114,-73v-90,-6,-151,104,-87,161v93,82,285,84,285,254v0,182,-221,274,-356,151v-34,-31,-53,-78,-62,-118","w":518},"T":{"d":"412,-597r-162,0r0,597r-74,0r0,-597r-162,0r0,-70r398,0r0,70","w":426},"U":{"d":"323,12v-145,0,-237,-107,-237,-250r0,-429r74,0r0,409v0,56,0,117,53,162v59,49,161,50,220,0v53,-45,53,-106,53,-162r0,-409r74,0r0,429v0,56,-6,110,-42,160v-40,55,-110,90,-195,90","w":646},"V":{"d":"8,-667r82,0r188,509r188,-509r82,0r-270,707","w":556},"W":{"d":"8,-667r82,0r176,500r209,-534r198,534r195,-500r82,0r-280,702r-196,-534r-210,534","w":958},"X":{"d":"14,0r197,-345r-179,-322r84,0r138,251r142,-251r84,0r-183,322r193,345r-84,0r-153,-274r-155,274r-84,0","w":504},"Y":{"d":"227,0r0,-287r-219,-380r86,0r170,298r172,-298r86,0r-221,380r0,287r-74,0","w":530},"Z":{"d":"512,-667r-364,597r354,0r0,70r-478,0r364,-597r-317,0r0,-70r441,0","w":536},"[":{"d":"248,-663r-96,0r0,773r96,0r0,66r-168,0r0,-905r168,0r0,66","w":290},"\\":{"d":"580,152r-58,28r-502,-900r58,-30","w":580},"]":{"d":"42,110r96,0r0,-773r-96,0r0,-66r168,0r0,905r-168,0r0,-66","w":290},"^":{"d":"250,-612r-146,247r-78,0r177,-302r94,0r177,302r-78,0","w":500},"_":{"d":"0,132r0,-64r500,0r0,64r-500,0","w":500},"`":{"d":"249,-497r-135,-135r74,-34r105,145","w":500},"a":{"d":"386,-356r0,-59r72,0r0,415r-72,0r0,-58v-24,31,-69,70,-142,70v-105,0,-202,-74,-202,-220v0,-143,96,-217,202,-217v80,0,123,44,142,69xm390,-207v0,-209,-275,-203,-274,-1v0,89,50,156,136,156v88,0,138,-73,138,-155","w":526},"b":{"d":"140,-58r0,58r-72,0r0,-729r72,0r0,372v49,-61,112,-68,142,-68v130,0,202,108,202,220v0,114,-73,217,-199,217v-67,0,-114,-30,-145,-70xm275,-52v84,0,135,-70,135,-153v-1,-208,-272,-205,-274,-1v0,85,54,154,139,154","w":526},"c":{"d":"393,-385r0,86v-97,-113,-277,-70,-277,93v0,168,188,201,280,89r0,86v-150,109,-354,1,-354,-174v0,-127,94,-220,222,-220v66,0,109,26,129,40","w":438},"d":{"d":"386,-356r0,-373r72,0r0,729r-72,0r0,-58v-24,31,-69,70,-142,70v-105,0,-202,-74,-202,-220v0,-143,96,-217,202,-217v80,0,123,44,142,69xm390,-207v0,-209,-275,-203,-274,-1v0,89,50,156,136,156v88,0,138,-73,138,-155","w":526},"e":{"d":"248,-52v62,0,109,-43,128,-87r60,33v-30,62,-103,118,-189,118v-100,0,-205,-63,-205,-217v0,-124,76,-220,201,-220v149,0,192,98,196,232r-323,0v1,86,60,141,132,141xm121,-253r244,0v-12,-65,-61,-108,-122,-108v-61,0,-111,46,-122,108","w":481},"f":{"d":"244,-349r-102,0r0,349r-72,0r0,-349r-40,0r0,-66r40,0r0,-179v0,-38,5,-84,40,-117v26,-25,100,-33,134,-18r0,70v-34,-11,-71,-18,-93,13v-20,61,-4,155,-9,231r102,0r0,66","w":240},"g":{"d":"253,167v88,0,139,-79,133,-164r0,-61v-24,31,-69,70,-142,70v-105,0,-202,-74,-202,-220v0,-143,96,-217,202,-217v80,0,123,44,142,69r0,-59r72,0r0,406v0,45,0,109,-40,163v-31,42,-88,77,-166,77v-71,0,-120,-28,-148,-56v-28,-28,-54,-73,-54,-134r71,0v-4,76,70,126,132,126xm390,-207v0,-209,-275,-203,-274,-1v0,89,50,156,136,156v88,0,138,-73,138,-155","w":526},"h":{"d":"330,-255v3,-55,-25,-106,-87,-106v-25,0,-52,7,-73,32v-28,33,-30,82,-30,112r0,217r-72,0r0,-729r72,0r0,362v13,-17,50,-58,119,-58v90,-1,143,65,143,168r0,257r-72,0r0,-255","w":470},"i":{"d":"68,-415r72,0r0,415r-72,0r0,-415xm53,-572v0,-28,23,-51,51,-51v28,0,51,23,51,51v0,28,-23,51,-51,51v-28,0,-51,-23,-51,-51","w":208},"j":{"d":"68,-415r72,0r0,649r-72,0r0,-649xm53,-572v0,-28,23,-51,51,-51v28,0,51,23,51,51v0,28,-23,51,-51,51v-28,0,-51,-23,-51,-51","w":208},"k":{"d":"68,-729r72,0r0,468r152,-154r94,0r-178,178r210,237r-94,0r-166,-189r-18,18r0,171r-72,0r0,-729","w":422},"l":{"d":"68,-729r72,0r0,729r-72,0r0,-729","w":208},"m":{"d":"68,0r0,-415r72,0r0,44v23,-34,59,-54,103,-54v75,0,106,53,114,67v40,-63,97,-67,125,-67v123,0,135,103,135,162r0,263r-72,0r0,-252v0,-47,-6,-109,-74,-109v-83,0,-92,80,-92,130r0,231r-72,0r0,-246v0,-29,0,-115,-76,-115v-82,0,-91,85,-91,135r0,226r-72,0","w":685},"n":{"d":"330,-255v3,-55,-25,-106,-87,-106v-25,0,-52,7,-73,32v-28,33,-30,82,-30,112r0,217r-72,0r0,-415r72,0r0,48v13,-17,50,-58,119,-58v90,-1,143,65,143,168r0,257r-72,0r0,-255","w":470},"o":{"d":"262,12v-126,0,-220,-92,-220,-218v0,-126,93,-219,220,-219v127,0,220,93,220,219v0,126,-94,218,-220,218xm262,-361v-76,0,-146,54,-146,155v0,102,72,154,146,154v75,0,146,-53,146,-154v0,-102,-70,-155,-146,-155","w":524},"p":{"d":"140,-58r0,292r-72,0r0,-649r72,0r0,58v49,-61,112,-68,142,-68v130,0,202,108,202,220v0,114,-73,217,-199,217v-67,0,-114,-30,-145,-70xm275,-52v84,0,135,-70,135,-153v-1,-208,-272,-205,-274,-1v0,85,54,154,139,154","w":526},"q":{"d":"386,-356r0,-59r72,0r0,649r-72,0r0,-292v-24,31,-69,70,-142,70v-105,0,-202,-74,-202,-220v0,-143,96,-217,202,-217v80,0,123,44,142,69xm390,-207v0,-209,-275,-203,-274,-1v0,89,50,156,136,156v88,0,138,-73,138,-155","w":526},"r":{"d":"68,0r0,-415r72,0r0,45v7,-11,38,-55,94,-55v22,0,46,8,64,17r-34,65v-35,-26,-82,-12,-100,12v-38,48,-20,234,-24,331r-72,0","w":296},"s":{"d":"298,-350r-59,31v-13,-50,-108,-62,-108,5v0,30,20,38,67,59v87,38,126,51,126,131v0,87,-63,136,-143,136v-17,0,-110,-2,-145,-106r62,-26v8,22,32,68,84,68v47,0,68,-35,68,-66v0,-39,-28,-52,-67,-69v-71,-33,-120,-47,-120,-122v0,-73,51,-116,121,-116v22,0,81,4,114,75","w":352},"t":{"d":"214,-349r-72,0r0,349r-72,0r0,-349r-44,0r0,-66r44,0r0,-150r72,0r0,150r72,0r0,66","w":214},"u":{"d":"233,-52v78,0,94,-58,93,-121r0,-242r72,0r0,250v0,51,-3,91,-38,125v-76,74,-178,73,-254,0v-35,-34,-38,-74,-38,-125r0,-250r72,0r0,242v-1,63,15,121,93,121","w":466},"v":{"d":"8,-415r80,0r124,280r124,-280r80,0r-204,442","w":424},"w":{"d":"8,-415r80,0r123,282r130,-314r129,314r124,-282r80,0r-206,444r-128,-310r-128,310","w":682},"x":{"d":"8,0r177,-222r-151,-193r88,0r107,141r109,-141r88,0r-152,194r172,221r-88,0r-131,-169r-131,169r-88,0","w":454},"y":{"d":"65,234r134,-273r-191,-376r82,0r147,297r135,-297r80,0r-307,649r-80,0","w":460},"z":{"d":"452,-415r-300,349r288,0r0,66r-432,0r300,-349r-242,0r0,-66r386,0","w":460},"{":{"d":"146,-276v31,0,57,-42,57,-89r0,-177v0,-38,4,-88,48,-116v36,-23,74,-20,120,-20r0,61v-27,0,-50,-4,-77,18v-20,17,-19,46,-19,69v0,111,26,255,-61,283v40,17,61,55,61,113r0,170v0,23,-1,52,19,69v26,22,51,18,77,18r0,61v-46,0,-84,3,-120,-20v-44,-28,-48,-78,-48,-116r0,-177v5,-47,-25,-89,-57,-89r0,-58","w":501},"|":{"d":"214,250r0,-1000r72,0r0,1000r-72,0","w":500},"}":{"d":"355,-218v-31,0,-57,42,-57,89r0,177v0,38,-4,88,-48,116v-36,23,-74,20,-120,20r0,-61v27,0,50,4,77,-18v20,-17,19,-46,19,-69v0,-111,-26,-255,61,-283v-40,-17,-61,-55,-61,-113r0,-170v0,-23,1,-52,-19,-69v-26,-22,-51,-18,-77,-18r0,-61v46,0,84,-3,120,20v44,28,48,78,48,116r0,177v-5,47,25,89,57,89r0,58","w":501},"~":{"d":"437,-659v45,3,78,-37,93,-68r44,26v-25,53,-68,112,-146,112v-66,0,-150,-66,-203,-66v-46,0,-72,38,-87,72r-44,-26v26,-55,63,-116,135,-116v67,0,141,62,208,66","w":668},"\u0401":{"d":"432,-667r0,70r-272,0r0,198r264,0r0,70r-264,0r0,259r272,0r0,70r-346,0r0,-667r346,0xm112,-784v0,-28,23,-51,51,-51v28,0,51,23,51,51v0,28,-23,51,-51,51v-28,0,-51,-23,-51,-51xm302,-784v0,-28,23,-51,51,-51v28,0,51,23,51,51v0,28,-23,51,-51,51v-28,0,-51,-23,-51,-51","w":482},"\u0451":{"d":"249,-52v62,0,109,-44,128,-87r60,33v-25,62,-118,118,-189,118v-100,0,-206,-63,-206,-217v0,-124,76,-220,202,-220v149,0,192,98,196,232r-324,0v1,86,60,141,133,141xm122,-253r244,0v-12,-65,-61,-108,-122,-108v-61,0,-111,46,-122,108xm110,-550v0,-27,23,-50,50,-50v27,0,50,23,50,50v0,27,-23,50,-50,50v-27,0,-50,-23,-50,-50xm284,-550v0,-27,23,-50,50,-50v27,0,50,23,50,50v0,27,-23,50,-50,50v-27,0,-50,-23,-50,-50","w":482},"\u0410":{"d":"532,0r-78,-188r-284,0r-80,188r-82,0r307,-699r299,699r-82,0xm199,-258r226,0r-112,-267","w":622},"\u0411":{"d":"86,0r0,-667r331,0r0,70r-257,0r0,207r90,0v82,0,230,17,230,188v0,127,-85,202,-216,202r-178,0xm160,-320r0,250v115,3,244,13,244,-132v0,-32,-8,-76,-54,-101v-50,-26,-121,-14,-190,-17","w":530},"\u0412":{"d":"86,-667v114,5,184,-20,273,42v22,15,60,57,60,138v0,33,-7,91,-66,131v158,39,157,238,59,312v-97,73,-192,36,-326,44r0,-667xm160,-597r0,223r56,0v39,0,131,-8,131,-111v0,-110,-108,-112,-129,-112r-58,0xm245,-70v85,6,162,-35,161,-120v0,-53,-32,-82,-57,-98v-35,-22,-122,-20,-189,-20r0,238r85,0","w":530},"\u0413":{"d":"86,0r0,-667r304,0r0,70r-230,0r0,597r-74,0","w":404},"\u0414":{"d":"144,-667r406,0r0,597r76,0r0,210r-70,0r0,-140r-472,0r0,140r-70,0r0,-210v48,2,86,-40,106,-90v39,-103,19,-353,24,-507xm218,-335v-1,145,-15,199,-75,265r333,0r0,-527r-258,0r0,262","w":640},"\u0415":{"d":"432,-667r0,70r-272,0r0,198r264,0r0,70r-264,0r0,259r272,0r0,70r-346,0r0,-667r346,0","w":482},"\u0416":{"d":"368,-667r74,0r0,286r254,-286r92,0r-280,311r288,356r-94,0r-244,-305r-16,18r0,287r-74,0r0,-287r-16,-18r-244,305r-94,0r288,-356r-280,-311r92,0r254,286r0,-286","w":810},"\u0417":{"d":"408,-507v0,-66,-65,-101,-117,-101v-48,0,-94,14,-134,72r-57,-45v54,-80,126,-97,191,-97v34,0,95,5,141,47v29,26,52,68,52,123v0,68,-40,117,-92,141v89,20,134,91,134,172v0,146,-106,207,-235,207v-132,0,-207,-82,-241,-160r72,-32v34,109,171,159,274,94v44,-28,54,-71,54,-107v0,-122,-113,-131,-178,-131r-60,0r0,-70r60,0v93,0,136,-52,136,-113","w":576},"\u0418":{"d":"550,0r0,-509r-464,539r0,-697r74,0r0,511r464,-539r0,695r-74,0","w":710},"\u0419":{"d":"550,0r0,-509r-464,539r0,-697r74,0r0,511r464,-539r0,695r-74,0xm200,-818r70,-23v16,55,77,56,85,56v8,0,69,-1,85,-56r70,23v-6,17,-41,97,-155,97v-114,0,-149,-80,-155,-97","w":710},"\u041a":{"d":"160,-667r0,286r284,-286r100,0r-312,311r322,356r-102,0r-273,-306r-19,19r0,287r-74,0r0,-667r74,0"},"\u041b":{"d":"51,-64v101,-3,104,-109,103,-205r0,-398r406,0r0,667r-74,0r0,-597r-258,0r0,358v0,60,5,150,-60,205v-40,34,-89,50,-154,34r0,-70v10,3,23,6,37,6","w":646},"\u041c":{"d":"139,0r-76,0r111,-704r256,563r261,-564r104,705r-76,0r-63,-464r-227,492r-224,-492","w":863},"\u041d":{"d":"160,-667r0,271r342,0r0,-271r74,0r0,667r-74,0r0,-326r-342,0r0,326r-74,0r0,-667r74,0","w":662},"\u041e":{"d":"397,12v-193,0,-347,-147,-347,-345v0,-199,155,-345,347,-345v192,0,347,146,347,345v0,198,-154,345,-347,345xm397,-608v-150,0,-271,122,-271,275v0,153,121,275,271,275v150,0,271,-122,271,-275v0,-153,-121,-275,-271,-275","w":794},"\u041f":{"d":"86,-667r490,0r0,667r-74,0r0,-597r-342,0r0,597r-74,0r0,-667","w":662},"\u0420":{"d":"86,-667v115,2,221,-13,289,47v48,43,61,101,61,143v0,94,-59,187,-211,187r-65,0r0,290r-74,0r0,-667xm160,-597r0,237v114,9,202,-22,202,-121v0,-106,-99,-116,-147,-116r-55,0","w":456},"\u0421":{"d":"395,-58v79,0,171,-53,201,-87r0,92v-245,171,-546,-10,-546,-278v0,-199,149,-347,349,-347v40,0,117,5,197,66r0,92v-41,-43,-119,-88,-202,-88v-154,0,-268,124,-268,278v0,181,147,272,269,272","w":646},"\u0422":{"d":"412,-597r-162,0r0,597r-74,0r0,-597r-162,0r0,-70r398,0r0,70","w":426},"\u0423":{"d":"8,-667r90,0r208,393r174,-393r80,0r-301,667r-80,0r85,-186"},"\u0424":{"d":"374,0r0,-94v-248,9,-324,-148,-324,-260v0,-112,74,-269,324,-260r0,-80r74,0r0,80v248,-9,324,148,324,260v0,112,-74,269,-324,260r0,94r-74,0xm374,-164r0,-380v-183,-9,-248,100,-248,190v0,90,63,199,248,190xm448,-544r0,380v183,9,248,-100,248,-190v0,-90,-63,-199,-248,-190","w":822},"\u0425":{"d":"14,0r197,-345r-179,-322r84,0r138,251r142,-251r84,0r-183,322r193,345r-84,0r-153,-274r-155,274r-84,0","w":504},"\u0426":{"d":"86,0r0,-667r74,0r0,597r338,0r0,-597r74,0r0,597r76,0r0,210r-70,0r0,-140r-492,0","w":662},"\u0427":{"d":"430,0r0,-286v-102,9,-253,14,-303,-29v-54,-46,-61,-110,-61,-155r0,-197r74,0r0,187v0,26,1,80,40,110v43,33,193,18,250,14r0,-311r74,0r0,667r-74,0","w":590},"\u0428":{"d":"86,0r0,-667r74,0r0,597r264,0r0,-597r74,0r0,597r264,0r0,-597r74,0r0,667r-750,0","w":922},"\u0429":{"d":"86,0r0,-667r74,0r0,597r264,0r0,-597r74,0r0,597r264,0r0,-597r74,0r0,597r76,0r0,210r-70,0r0,-140r-756,0","w":926},"\u042a":{"d":"174,0r0,-597r-160,0r0,-70r234,0r0,277r90,0v82,0,230,17,230,188v0,127,-85,202,-216,202r-178,0xm248,-320r0,250v115,3,244,13,244,-132v0,-32,-8,-76,-54,-101v-50,-26,-121,-14,-190,-17","w":610},"\u042b":{"d":"86,0r0,-667r74,0r0,277r90,0v82,0,230,17,230,188v0,127,-85,202,-216,202r-178,0xm160,-320r0,250v115,3,244,13,244,-132v0,-32,-8,-76,-54,-101v-50,-26,-121,-14,-190,-17xm550,-667r74,0r0,667r-74,0r0,-667","w":710},"\u042c":{"d":"86,0r0,-667r74,0r0,277r90,0v82,0,230,17,230,188v0,127,-85,202,-216,202r-178,0xm160,-320r0,250v115,3,244,13,244,-132v0,-32,-8,-76,-54,-101v-50,-26,-121,-14,-190,-17","w":522},"\u042d":{"d":"272,-608v-100,0,-153,23,-222,88r0,-92v77,-53,155,-66,217,-66v202,0,328,148,328,347v0,195,-123,343,-324,343v-55,0,-139,-12,-221,-65r0,-92v43,50,142,88,221,87v130,0,249,-101,248,-252r-389,0r0,-70r386,0v-10,-126,-107,-228,-244,-228","w":645},"\u042e":{"d":"160,-389r102,0v24,-164,158,-289,337,-289v196,0,341,143,341,345v0,198,-145,345,-341,345v-199,0,-333,-154,-340,-331r-99,0r0,319r-74,0r0,-667r74,0r0,278xm599,-608v-147,0,-264,118,-264,275v0,157,117,275,264,275v147,0,265,-118,265,-275v0,-157,-118,-275,-265,-275","w":990},"\u042f":{"d":"30,0r196,-296v-30,-3,-76,-13,-112,-42v-86,-68,-72,-208,-12,-269v94,-97,181,-50,322,-60r0,667r-74,0r0,-292r-40,0r-190,292r-90,0xm132,-476v0,118,104,122,218,118r0,-239v-107,-7,-218,0,-218,121","w":510},"\u0430":{"d":"386,-356r0,-59r72,0r0,415r-72,0r0,-58v-24,31,-69,70,-142,70v-105,0,-202,-74,-202,-220v0,-143,96,-217,202,-217v80,0,123,44,142,69xm390,-207v0,-209,-275,-203,-274,-1v0,89,50,156,136,156v88,0,138,-73,138,-155","w":526},"\u0431":{"d":"255,12v-163,0,-213,-137,-213,-266v0,-74,6,-259,118,-342v65,-48,204,-39,228,-104r80,0v-53,141,-165,89,-268,161v-51,36,-89,119,-85,190v27,-46,77,-76,151,-76v124,0,216,95,216,219v0,124,-91,218,-227,218xm262,-361v-76,0,-146,54,-146,155v0,102,72,154,146,154v75,0,146,-53,146,-154v0,-102,-70,-155,-146,-155","w":524},"\u0432":{"d":"388,-122v-5,84,-64,122,-141,122r-179,0r0,-415v127,6,280,-34,280,102v0,41,-20,67,-45,83v36,5,88,57,85,108xm282,-301v0,-65,-79,-48,-142,-50r0,105v67,-3,142,17,142,-55xm318,-124v0,-77,-97,-62,-178,-62r0,122v79,-1,178,15,178,-60","w":430},"\u0433":{"d":"68,0r0,-415r246,0r0,66r-174,0r0,349r-72,0","w":318},"\u0434":{"d":"4,-66v130,-13,87,-210,94,-349r292,0r0,349r62,0r0,176r-66,0r0,-110r-316,0r0,110r-66,0r0,-176xm318,-66r0,-283r-148,0v-6,115,23,223,-50,283r198,0","w":460},"\u0435":{"d":"248,-52v62,0,109,-43,128,-87r60,33v-30,62,-103,118,-189,118v-100,0,-205,-63,-205,-217v0,-124,76,-220,201,-220v149,0,192,98,196,232r-323,0v1,86,60,141,132,141xm121,-253r244,0v-12,-65,-61,-108,-122,-108v-61,0,-111,46,-122,108","w":481},"\u0436":{"d":"262,-415r72,0r0,170r156,-170r84,0r-180,192r198,223r-90,0r-154,-175r-14,14r0,161r-72,0r0,-161r-14,-14r-154,175r-90,0r198,-223r-180,-192r84,0r156,170r0,-170","w":596},"\u0437":{"d":"284,-303v-4,-84,-134,-70,-162,-6r-50,-41v24,-42,88,-79,144,-75v61,-9,134,45,134,108v0,49,-26,74,-47,87v49,13,75,47,77,103v5,128,-180,182,-283,104v-24,-18,-43,-45,-55,-71r62,-26v4,24,65,77,105,68v42,1,102,-15,99,-74v-3,-64,-71,-65,-135,-62r0,-66r35,0v59,-4,65,-9,76,-49","w":422},"\u0438":{"d":"68,-415r72,0r0,274r284,-306r0,447r-72,0r0,-277r-284,306r0,-444","w":492},"\u0439":{"d":"68,-415r72,0r0,274r284,-306r0,447r-72,0r0,-277r-284,306r0,-444xm104,-594r60,-23v10,34,38,60,85,60v47,0,75,-26,85,-60r60,23v-21,59,-75,97,-145,97v-70,0,-124,-38,-145,-97","w":492},"\u043a":{"d":"68,-415r72,0r0,170r168,-170r88,0r-180,185r202,230r-94,0r-162,-182r-22,21r0,161r-72,0r0,-415","w":422},"\u043b":{"d":"8,-66v63,12,82,-40,82,-96r0,-253r292,0r0,415r-72,0r0,-349r-148,0v-6,165,44,361,-154,349r0,-66","w":450},"\u043c":{"d":"20,0r100,-447r172,338r168,-338r100,447r-74,0r-55,-257r-141,286r-143,-286r-53,257r-74,0","w":580},"\u043d":{"d":"68,0r0,-415r72,0r0,170r196,0r0,-170r72,0r0,415r-72,0r0,-179r-196,0r0,179r-72,0","w":476},"\u043e":{"d":"262,12v-126,0,-220,-92,-220,-218v0,-126,93,-219,220,-219v127,0,220,93,220,219v0,126,-94,218,-220,218xm262,-361v-76,0,-146,54,-146,155v0,102,72,154,146,154v75,0,146,-53,146,-154v0,-102,-70,-155,-146,-155","w":524},"\u043f":{"d":"68,-415r334,0r0,415r-72,0r0,-349r-190,0r0,349r-72,0r0,-415","w":470},"\u0440":{"d":"140,-58r0,292r-72,0r0,-649r72,0r0,58v49,-61,112,-68,142,-68v130,0,202,108,202,220v0,114,-73,217,-199,217v-67,0,-114,-30,-145,-70xm275,-52v84,0,135,-70,135,-153v-1,-208,-272,-205,-274,-1v0,85,54,154,139,154","w":526},"\u0441":{"d":"393,-385r0,86v-97,-113,-277,-70,-277,93v0,168,188,201,280,89r0,86v-150,109,-354,1,-354,-174v0,-127,94,-220,222,-220v66,0,109,26,129,40","w":438},"\u0442":{"d":"340,-349r-130,0r0,349r-72,0r0,-349r-130,0r0,-66r332,0r0,66","w":348},"\u0443":{"d":"65,234r134,-273r-191,-376r82,0r147,297r135,-297r80,0r-307,649r-80,0","w":460},"\u0444":{"d":"361,-422v142,3,247,64,247,214v0,69,-24,122,-72,161v-59,48,-136,54,-175,54r0,227r-72,0r0,-227v-39,0,-116,-6,-175,-54v-48,-39,-72,-92,-72,-161v0,-150,105,-210,247,-214r0,-245r72,0r0,245xm289,-57r0,-301v-39,-2,-83,8,-111,26v-27,17,-62,54,-62,124v2,112,77,149,173,151xm361,-57v95,-1,172,-40,173,-151v0,-70,-35,-107,-62,-124v-28,-18,-72,-28,-111,-26r0,301","w":650},"\u0445":{"d":"8,0r177,-222r-151,-193r88,0r107,141r109,-141r88,0r-152,194r172,221r-88,0r-131,-169r-131,169r-88,0","w":454},"\u0446":{"d":"68,0r0,-415r72,0r0,349r186,0r0,-349r72,0r0,349r68,0r0,176r-66,0r0,-110r-332,0","w":474},"\u0447":{"d":"290,0r0,-163v-75,7,-136,30,-199,-21v-55,-45,-30,-142,-35,-231r72,0v3,57,-8,124,9,168v33,46,94,23,153,18r0,-186r72,0r0,415r-72,0","w":430},"\u0448":{"d":"68,0r0,-415r72,0r0,349r160,0r0,-349r72,0r0,349r160,0r0,-349r72,0r0,415r-536,0","w":672},"\u0449":{"d":"68,0r0,-415r72,0r0,349r160,0r0,-349r72,0r0,349r160,0r0,-349r72,0r0,349r68,0r0,176r-66,0r0,-110r-538,0","w":680},"\u044a":{"d":"402,-128v0,96,-80,128,-159,128r-145,0r0,-349r-90,0r0,-66r162,0r0,159r74,0v68,-4,158,31,158,128xm328,-128v3,-40,-43,-64,-90,-64r-68,0r0,128v75,-4,152,19,158,-64","w":430},"\u044b":{"d":"372,-128v0,96,-80,128,-159,128r-145,0r0,-415r72,0r0,159r74,0v68,-4,158,31,158,128xm298,-128v3,-40,-43,-64,-90,-64r-68,0r0,128v75,-4,152,19,158,-64xm422,0r0,-415r72,0r0,415r-72,0","w":562},"\u044c":{"d":"372,-128v0,96,-80,128,-159,128r-145,0r0,-415r72,0r0,159r74,0v68,-4,158,31,158,128xm298,-128v3,-40,-43,-64,-90,-64r-68,0r0,128v75,-4,152,19,158,-64","w":400},"\u044d":{"d":"42,-334r0,-70v42,-17,80,-21,113,-21v143,0,226,92,226,220v0,125,-89,217,-221,217v-62,0,-101,-16,-118,-23r0,-70v110,60,251,25,265,-99r-219,0r0,-64r219,0v-27,-120,-154,-143,-265,-90","w":423},"\u044e":{"d":"215,-245v19,-112,92,-180,213,-180v128,0,220,93,220,219v0,126,-93,218,-220,218v-86,0,-140,-39,-171,-78v-20,-25,-41,-63,-46,-113r-71,0r0,179r-72,0r0,-415r72,0r0,170r75,0xm428,-361v-77,0,-143,56,-143,155v0,102,70,154,143,154v75,0,146,-53,146,-154v0,-101,-70,-155,-146,-155","w":690},"\u044f":{"d":"20,0r129,-171v-5,0,-48,-6,-80,-33v-41,-34,-41,-140,4,-176v71,-56,162,-27,267,-35r0,415r-72,0r0,-167r-44,0r-118,167r-86,0xm110,-289v0,70,83,64,158,62r0,-124v-75,2,-158,-15,-158,62","w":408},"\u00a0":{"w":233}}});