/*!
 * The following copyright notice may not be removed under any circumstances.
 * 
 * Copyright:
 * Copyright (c) 1990 Neufville SL, Copyright (c) 1990-2000 ParaType, Inc. All
 * Rights Reserved. Futura is a registered trade mark of Neufville SL.
 */
Cufon.registerFont({"w":568,"face":{"font-family":"FuturaDemiC","font-weight":400,"font-stretch":"normal","units-per-em":"1000","panose-1":"2 0 5 3 4 0 0 2 0 4","ascent":"800","descent":"-200","x-height":"14","bbox":"-26 -883 982 250","underline-thickness":"50","underline-position":"-50","unicode-range":"U+0020-U+0451"},"glyphs":{" ":{"w":233},"\u00a0":{"w":233},"#":{"d":"361,-391r-94,0r-16,101r94,0xm298,0r30,-186r-94,0r-30,186r-122,0r30,-186r-102,0r17,-104r102,0r16,-101r-102,0r17,-104r102,0r28,-172r122,0r-28,172r94,0r28,-172r122,0r-28,172r102,0r-17,104r-102,0r-16,101r102,0r-17,104r-102,0r-30,186r-122,0","w":600},"$":{"d":"140,-371v-91,-104,-20,-295,124,-294r0,-96r62,0r0,96v66,5,116,36,154,75r-66,84v-22,-27,-55,-50,-105,-54v-79,-6,-118,91,-53,126v101,55,246,70,246,225v0,119,-73,186,-176,207r0,101r-62,0r0,-99v-106,-7,-170,-56,-216,-119r75,-77v31,45,75,81,148,88v95,9,138,-113,56,-157v-62,-33,-141,-53,-187,-106"},"%":{"d":"492,-148v0,49,35,86,84,86v49,0,84,-37,84,-86v0,-49,-35,-86,-84,-86v-49,0,-84,37,-84,86xm408,-148v0,-101,65,-158,168,-158v103,0,168,57,168,158v0,101,-65,158,-168,158v-103,0,-168,-57,-168,-158xm559,-689r53,30r-397,687r-53,-31xm114,-517v0,49,35,86,84,86v49,0,84,-37,84,-86v0,-49,-35,-86,-84,-86v-49,0,-84,37,-84,86xm30,-517v0,-101,65,-158,168,-158v103,0,168,57,168,158v0,101,-65,158,-168,158v-103,0,-168,-57,-168,-158","w":774},"&":{"d":"334,-588v-74,0,-85,87,-40,125r29,36v33,-24,76,-46,76,-95v0,-36,-23,-66,-65,-66xm182,-187v-3,81,108,110,172,67v17,-11,36,-24,49,-37r-126,-145v-42,24,-93,56,-95,115xm328,-682v133,-4,217,113,158,235v-16,34,-61,67,-101,89r110,126v38,-36,55,-57,83,-92r76,75r-87,96r135,153r-161,0r-65,-75v-51,44,-118,90,-215,90v-126,0,-209,-70,-209,-191v0,-115,85,-157,159,-200v-32,-33,-67,-76,-67,-140v0,-106,72,-164,184,-166","w":710},"'":{"d":"155,-399r-90,0r-23,-268r136,0","w":220},"(":{"d":"264,-713v-106,215,-105,616,0,830r-97,53v-131,-218,-131,-720,0,-936","w":320},")":{"d":"56,117v106,-215,105,-616,0,-830r97,-53v131,218,131,720,0,936","w":320},"*":{"d":"258,-623r-20,-126r92,0r-20,126r114,-59r28,88r-127,20r91,90r-75,54r-57,-115r-57,116r-75,-54r91,-91r-127,-19r28,-88"},"+":{"d":"33,-395r156,0r0,-156r122,0r0,156r156,0r0,112r-156,0r0,156r-122,0r0,-156r-156,0r0,-112","w":500},",":{"d":"110,-138r112,13r-141,265r-77,-9","w":328},".":{"d":"126,13v-43,0,-78,-35,-78,-78v0,-43,35,-78,78,-78v43,0,78,35,78,78v0,43,-35,78,-78,78","w":252},"\/":{"d":"382,-741r88,40r-382,884r-88,-40","w":550},"0":{"d":"284,-97v173,-18,160,-392,44,-461v-15,-8,-30,-12,-44,-12v-102,0,-128,116,-128,236v0,121,26,222,128,237xm520,-182v-40,136,-168,247,-332,175v-106,-47,-162,-168,-162,-327v0,-160,54,-283,162,-326v215,-87,357,93,354,327v0,57,-9,107,-22,151"},"1":{"d":"228,-555r-96,0r0,-112r226,0r0,667r-130,0r0,-555"},"2":{"d":"262,-682v164,-3,274,123,224,284v-39,125,-149,193,-225,286r241,0r0,112r-484,0r284,-327v32,-40,62,-78,65,-142v3,-58,-43,-102,-99,-101v-68,2,-100,47,-106,111r-134,0v10,-138,91,-220,234,-223"},"3":{"d":"265,-580v-55,2,-88,33,-92,87r-122,0v14,-118,90,-186,217,-189v122,-3,209,67,209,184v0,70,-29,113,-77,140v57,24,102,73,102,159v0,170,-164,249,-328,199v-84,-26,-140,-91,-150,-192r130,0v8,55,47,96,111,95v68,-1,107,-41,107,-106v0,-71,-48,-108,-128,-104r0,-94v70,4,107,-28,109,-91v1,-53,-35,-89,-88,-88"},"4":{"d":"348,-222r0,-265r-172,265r172,0xm470,-222r78,0r0,104r-78,0r0,118r-122,0r0,-118r-326,0r0,-58r331,-503r117,0r0,457"},"5":{"d":"221,-360v-52,0,-91,14,-128,43r-8,0r79,-350r308,0r0,112r-222,0r-24,105v163,-20,267,65,276,222v15,250,-330,312,-476,158r43,-112v37,44,88,84,169,85v77,2,137,-53,134,-129v-3,-87,-59,-134,-151,-134"},"6":{"d":"160,-212v0,75,48,123,123,123v75,0,123,-48,123,-123v0,-75,-48,-123,-123,-123v-75,0,-123,48,-123,123xm283,15v-195,6,-310,-170,-227,-345v66,-139,175,-242,261,-365r92,70r-158,202v22,-9,44,-17,75,-16v129,6,210,83,210,217v0,150,-95,232,-253,237"},"7":{"d":"356,-555r-310,0r0,-112r514,0r-406,695r-99,-68"},"8":{"d":"182,-191v0,59,44,104,102,104v58,0,102,-45,102,-104v0,-59,-44,-104,-102,-104v-58,0,-102,45,-102,104xm191,-495v0,55,38,93,93,93v55,0,93,-38,93,-93v0,-55,-38,-93,-93,-93v-55,0,-93,38,-93,93xm493,-496v3,75,-47,123,-96,148v68,20,119,83,119,166v0,130,-97,197,-232,197v-135,0,-232,-66,-232,-197v0,-83,51,-146,119,-166v-49,-25,-99,-73,-96,-148v5,-121,83,-186,209,-186v126,0,204,65,209,186"},"9":{"d":"408,-455v0,-75,-48,-123,-123,-123v-75,0,-123,48,-123,123v0,75,48,123,123,123v75,0,123,-48,123,-123xm285,-682v195,-6,310,169,227,344v-66,139,-175,243,-261,366r-92,-70r158,-202v-22,9,-44,17,-75,16v-129,-6,-210,-83,-210,-217v0,-151,95,-232,253,-237"},":":{"d":"126,13v-43,0,-78,-35,-78,-78v0,-43,35,-78,78,-78v43,0,78,35,78,78v0,43,-35,78,-78,78xm126,-292v-43,0,-78,-35,-78,-78v0,-43,35,-78,78,-78v43,0,78,35,78,78v0,43,-35,78,-78,78","w":252},";":{"d":"110,-138r112,13r-141,265r-77,-9xm162,-292v-43,0,-78,-35,-78,-78v0,-43,35,-78,78,-78v43,0,78,35,78,78v0,43,-35,78,-78,78","w":328},"\u037e":{"d":"110,-138r112,13r-141,265r-77,-9xm162,-292v-43,0,-78,-35,-78,-78v0,-43,35,-78,78,-78v43,0,78,35,78,78v0,43,-35,78,-78,78","w":328},"<":{"d":"467,-184r0,120r-434,-218r0,-104r434,-218r0,120r-306,150","w":500},"=":{"d":"33,-306r434,0r0,106r-434,0r0,-106xm33,-478r434,0r0,106r-434,0r0,-106","w":500},">":{"d":"33,-484r0,-120r434,218r0,104r-434,218r0,-120r306,-150","w":500},"?":{"d":"221,13v-43,0,-78,-35,-78,-78v0,-43,35,-78,78,-78v43,0,78,35,78,78v0,43,-35,78,-78,78xm448,-495v0,110,-68,170,-165,187r0,105r-124,0r0,-196v83,16,158,-18,159,-96v0,-45,-29,-80,-75,-79v-50,1,-72,34,-71,83r-130,0v1,-127,81,-191,203,-191v123,0,203,65,203,187","w":490},"@":{"d":"381,-415v-78,0,-122,117,-69,167v58,54,138,-14,134,-93v-2,-40,-22,-74,-65,-74xm369,-502v43,0,82,18,99,52r8,-42r84,0r-43,220v-11,42,23,66,51,40v35,-32,59,-84,59,-147v0,-140,-92,-224,-239,-224v-171,0,-273,111,-273,276v0,165,102,264,272,264v70,0,129,-11,187,-33r19,76v-149,55,-364,31,-455,-56v-84,-80,-138,-255,-78,-394v53,-121,161,-208,328,-208v193,0,313,108,313,292v0,102,-42,176,-105,216v-50,32,-126,17,-137,-39v-27,38,-66,64,-123,64v-92,0,-141,-62,-141,-157v0,-117,64,-200,174,-200","w":734},"A":{"d":"433,-246r-94,-240r-96,240r190,0xm471,-140r-269,0r-59,140r-141,0r289,-681r98,0r281,681r-140,0","w":672},"B":{"d":"392,-201v0,-83,-92,-96,-186,-89r0,184v96,5,186,-5,186,-95xm344,-477v0,-73,-61,-88,-138,-84r0,171v77,4,138,-11,138,-87xm526,-189v0,124,-97,189,-226,189r-224,0r0,-667r165,0v134,-5,222,54,225,180v1,67,-34,108,-75,131v87,16,135,71,135,167","w":570},"C":{"d":"404,-103v70,0,122,-31,156,-73r0,152v-91,58,-287,44,-364,-17v-86,-68,-152,-151,-152,-292v0,-175,93,-284,219,-329v95,-34,219,-27,297,21r0,152v-38,-43,-88,-75,-161,-75v-139,0,-221,95,-221,233v0,142,90,228,226,228","w":604},"D":{"d":"492,-333v0,-158,-110,-234,-286,-222r0,443v174,11,286,-63,286,-221xm250,-667v232,-6,376,116,376,334v0,217,-145,336,-378,333r-172,0r0,-667r174,0","w":670},"E":{"d":"446,-555r-240,0r0,149r230,0r0,112r-230,0r0,182r240,0r0,112r-370,0r0,-667r370,0r0,112","w":496},"F":{"d":"430,-555r-224,0r0,149r210,0r0,112r-210,0r0,294r-130,0r0,-667r354,0r0,112","w":466},"G":{"d":"194,-422v-62,182,59,362,268,311v67,-17,114,-60,124,-134r-172,0r0,-112r306,0v4,226,-108,372,-326,372v-168,0,-274,-84,-324,-206v-34,-83,-35,-202,0,-284v52,-122,159,-207,328,-207v146,0,233,68,286,157r-113,61v-32,-53,-86,-101,-174,-100v-108,1,-175,60,-203,142","w":764},"H":{"d":"206,-409r282,0r0,-258r130,0r0,667r-130,0r0,-297r-282,0r0,297r-130,0r0,-667r130,0r0,258","w":694},"I":{"d":"206,-667r0,667r-130,0r0,-667r130,0","w":282},"J":{"d":"118,-106v68,0,66,-64,66,-131r0,-430r130,0r0,450v3,138,-52,232,-187,232v-64,0,-115,-23,-153,-62r79,-95v13,18,34,36,65,36","w":390},"K":{"d":"206,-385r245,-282r164,0r-282,308r297,359r-172,0r-237,-299r-15,15r0,284r-130,0r0,-667r130,0r0,282","w":636},"L":{"d":"206,-667r0,555r206,0r0,112r-336,0r0,-667r130,0","w":426},"M":{"d":"166,-679r90,0r181,436r189,-436r90,0r112,679r-132,0r-60,-411r-183,420r-36,0r-175,-420r-68,411r-132,0","w":870},"N":{"d":"76,0r0,-682r90,0r406,464r0,-449r130,0r0,680r-90,0r-406,-464r0,451r-130,0","w":778},"O":{"d":"178,-333v0,141,82,230,222,230v140,0,222,-89,222,-230v0,-141,-82,-231,-222,-231v-140,0,-222,90,-222,231xm143,-584v74,-81,258,-130,401,-72v124,51,212,155,212,323v0,168,-88,272,-212,322v-85,35,-203,35,-288,0v-124,-50,-212,-154,-212,-322v0,-109,44,-191,99,-251","w":800},"P":{"d":"380,-458v0,-88,-80,-102,-174,-97r0,196v97,7,174,-11,174,-99xm514,-455v0,136,-82,207,-224,208r-84,0r0,247r-130,0r0,-667r194,0v153,-4,244,68,244,212","w":534},"Q":{"d":"178,-333v0,159,114,253,282,223v16,-3,30,-9,42,-15r-136,-132r135,-11r77,79v24,-34,46,-77,44,-144v-5,-140,-82,-231,-222,-231v-140,0,-222,90,-222,231xm756,-333v2,108,-39,181,-88,237r108,109r-131,13r-55,-59v-83,55,-230,64,-334,23v-124,-49,-212,-155,-212,-323v0,-168,89,-273,212,-323v85,-35,203,-35,288,0v124,51,209,155,212,323","w":800},"R":{"d":"371,-461v0,-88,-75,-105,-165,-100r0,201v89,4,165,-13,165,-101xm505,-467v0,104,-58,167,-151,186r208,281r-162,0r-178,-268r-16,0r0,268r-130,0r0,-667r193,0v151,-1,236,67,236,200","w":574},"S":{"d":"74,-440v-55,-232,258,-316,398,-164r-68,89v-26,-32,-56,-52,-109,-57v-93,-8,-124,111,-41,142v113,42,242,67,242,226v0,167,-148,252,-315,206v-66,-18,-113,-64,-147,-113r85,-81v26,50,70,84,140,89v85,6,141,-99,77,-152v-81,-68,-233,-62,-262,-185","w":534},"T":{"d":"286,-555r0,555r-130,0r0,-555r-150,0r0,-112r430,0r0,112r-150,0","w":442},"U":{"d":"344,15v-167,0,-268,-99,-268,-274r0,-408r130,0r0,419v3,94,47,145,138,145v91,0,138,-52,138,-145r0,-419r130,0r0,408v4,175,-101,274,-268,274","w":688},"V":{"d":"144,-667r178,448r178,-448r142,0r-286,682r-70,0r-284,-682r142,0","w":644},"W":{"d":"330,15r-92,0r-236,-682r138,0r149,454r163,-460r72,0r154,460r160,-454r138,0r-251,682r-92,0r-148,-438","w":978},"X":{"d":"244,-352r-199,-315r156,0r117,207r123,-207r156,0r-205,315r228,352r-156,0r-146,-244r-154,244r-156,0","w":640},"Y":{"d":"227,-305r-229,-362r154,0r143,232r143,-232r154,0r-235,362r0,305r-130,0r0,-305","w":590},"Z":{"d":"238,-112r308,0r0,112r-524,0r324,-555r-273,0r0,-112r489,0","w":584},"[":{"d":"206,-645r0,701r94,0r0,104r-210,0r0,-909r210,0r0,104r-94,0","w":350},"\\":{"d":"462,183r-382,-884r88,-40r382,884","w":550},"]":{"d":"144,56r0,-701r-94,0r0,-104r210,0r0,909r-210,0r0,-104r94,0","w":350},"^":{"d":"135,-339r-127,0r162,-331r160,0r162,331r-127,0r-115,-241","w":500},"_":{"d":"0,54r500,0r0,104r-500,0r0,-104","w":500},"`":{"d":"94,-644r88,-56r118,150r-56,40","w":500},"a":{"d":"402,-217v0,-74,-46,-122,-120,-122v-74,0,-120,48,-120,122v0,74,46,123,120,123v74,0,120,-49,120,-123xm251,-447v66,0,112,26,139,70r0,-56r122,0r0,433r-122,0r0,-56v-30,42,-68,70,-133,70v-139,0,-221,-93,-221,-231v0,-137,79,-230,215,-230","w":570},"b":{"d":"408,-217v0,-74,-46,-122,-120,-122v-74,0,-120,48,-120,122v0,74,46,123,120,123v74,0,120,-49,120,-123xm318,14v-65,0,-107,-28,-138,-70r0,56r-122,0r0,-749r122,0r0,372v30,-42,74,-70,141,-70v137,0,213,93,213,230v0,138,-79,231,-216,231","w":570},"c":{"d":"267,-447v48,0,84,9,117,26r0,120v-25,-22,-54,-38,-100,-38v-77,0,-122,46,-122,122v0,77,49,123,126,123v39,0,71,-13,96,-38r0,119v-48,28,-144,37,-206,9v-82,-36,-142,-95,-142,-211v0,-143,94,-232,231,-232","w":418},"d":{"d":"402,-217v0,-74,-46,-122,-120,-122v-74,0,-120,48,-120,122v0,74,46,123,120,123v74,0,120,-49,120,-123xm251,-447v66,0,112,26,139,70r0,-372r122,0r0,749r-122,0r0,-56v-30,42,-68,70,-133,70v-139,0,-221,-93,-221,-231v0,-137,79,-230,215,-230","w":570},"e":{"d":"371,-274v-8,-76,-104,-113,-167,-66v-20,14,-33,37,-38,66r205,0xm270,-82v49,1,82,-25,101,-57r112,18v-33,76,-98,135,-213,135v-115,0,-185,-58,-218,-137v-24,-57,-19,-150,6,-199v40,-78,103,-125,207,-125v155,0,220,94,221,251r-324,0v2,70,36,112,108,114","w":522},"f":{"d":"239,-653v-87,3,-49,136,-57,220r112,0r0,104r-112,0r0,329r-122,0r0,-329r-46,0r0,-104r46,0r0,-139v-11,-140,105,-224,234,-174r0,111v-16,-12,-34,-18,-55,-18","w":292},"g":{"d":"402,-217v0,-74,-46,-122,-120,-122v-74,0,-120,48,-120,122v0,74,46,123,120,123v74,0,120,-49,120,-123xm252,-447v67,0,110,30,136,70r0,-56r122,0r0,417v14,192,-136,284,-316,236v-80,-21,-133,-80,-147,-169r132,0v8,48,46,78,102,78v101,1,113,-85,107,-187v-28,43,-67,72,-133,72v-139,0,-219,-93,-219,-231v0,-136,78,-230,216,-230"},"h":{"d":"274,-343v-68,2,-94,53,-94,122r0,221r-122,0r0,-749r122,0r0,372v28,-38,68,-69,134,-70v101,0,162,65,162,175r0,272r-122,0r0,-236v3,-58,-22,-108,-80,-107","w":534},"i":{"d":"119,-543v-39,0,-73,-34,-73,-73v0,-39,34,-73,73,-73v39,0,73,34,73,73v0,39,-34,73,-73,73xm180,-433r0,433r-122,0r0,-433r122,0","w":238},"j":{"d":"119,-543v-39,0,-73,-34,-73,-73v0,-39,34,-73,73,-73v39,0,73,34,73,73v0,39,-34,73,-73,73xm180,-433r0,665r-122,0r0,-665r122,0","w":238},"k":{"d":"180,-749r0,474r162,-158r158,0r-203,190r219,243r-162,0r-161,-185r-13,12r0,173r-122,0r0,-749r122,0","w":512},"l":{"d":"180,-749r0,749r-122,0r0,-749r122,0","w":238},"m":{"d":"264,-343v-66,0,-84,58,-84,122r0,221r-122,0r0,-433r122,0r0,49v30,-37,68,-63,129,-63v71,0,114,34,137,79v27,-43,69,-79,139,-79v105,0,147,67,147,175r0,272r-122,0r0,-236v1,-65,-15,-107,-70,-107v-66,0,-84,58,-84,122r0,221r-122,0r0,-236v1,-65,-15,-107,-70,-107","w":790},"n":{"d":"274,-343v-68,2,-94,53,-94,122r0,221r-122,0r0,-433r122,0r0,56v28,-38,68,-69,134,-70v101,0,162,65,162,175r0,272r-122,0r0,-236v3,-58,-22,-108,-80,-107","w":534},"o":{"d":"162,-216v0,74,48,122,122,122v74,0,122,-48,122,-122v0,-74,-48,-123,-122,-123v-74,0,-122,49,-122,123xm109,-386v46,-54,185,-78,279,-44v108,39,183,179,124,310v-37,83,-107,134,-228,134v-121,0,-187,-53,-228,-134v-47,-94,-5,-223,53,-266"},"p":{"d":"408,-217v0,-74,-46,-122,-120,-122v-74,0,-120,48,-120,122v0,74,46,123,120,123v74,0,120,-49,120,-123xm318,14v-65,0,-107,-28,-138,-70r0,288r-122,0r0,-665r122,0r0,56v30,-42,74,-70,141,-70v137,0,213,93,213,230v0,138,-79,231,-216,231","w":570},"q":{"d":"402,-217v0,-74,-46,-122,-120,-122v-74,0,-120,48,-120,122v0,74,46,123,120,123v74,0,120,-49,120,-123xm251,-447v66,0,112,26,139,70r0,-56r122,0r0,665r-122,0r0,-288v-30,42,-68,70,-133,70v-139,0,-221,-93,-221,-231v0,-137,79,-230,215,-230","w":570},"r":{"d":"285,-339v-72,-2,-105,55,-105,131r0,208r-122,0r0,-433r122,0r0,65v27,-62,99,-96,178,-69r-16,114v-16,-10,-31,-16,-57,-16","w":360},"s":{"d":"67,-272v-43,-125,75,-203,209,-168v24,6,51,18,78,39r-60,71v-21,-20,-43,-27,-71,-29v-34,-2,-60,26,-41,55v66,48,194,41,194,162v0,158,-218,198,-321,108v-10,-8,-18,-17,-25,-24r64,-74v21,24,55,47,96,50v46,4,79,-46,47,-76v-59,-36,-146,-43,-170,-114","w":404},"t":{"d":"180,-329r0,329r-122,0r0,-329r-48,0r0,-104r48,0r0,-148r122,0r0,148r84,0r0,104r-84,0","w":270},"u":{"d":"268,14v-120,0,-210,-54,-210,-182r0,-265r122,0r0,245v-3,58,30,98,88,98v58,0,88,-39,88,-98r0,-245r122,0r0,265v3,128,-89,182,-210,182","w":536},"v":{"d":"138,-433r114,244r114,-244r136,0r-222,442r-56,0r-222,-442r136,0","w":504},"w":{"d":"280,9r-56,0r-222,-442r136,0r114,250r118,-262r52,0r118,262r114,-250r136,0r-222,442r-56,0r-116,-264","w":792},"x":{"d":"208,-236r-166,-197r154,0r88,112r90,-112r154,0r-169,197r205,236r-156,0r-124,-151r-126,151r-156,0","w":566},"y":{"d":"208,-65r-206,-368r142,0r134,246r120,-246r138,0r-349,665r-138,0","w":538},"z":{"d":"226,-104r229,0r0,104r-443,0r246,-329r-208,0r0,-104r422,0","w":484},"{":{"d":"295,-365v2,67,-19,100,-60,125v41,25,60,58,60,125r0,143v-7,60,47,65,105,61r0,104v-129,13,-221,-9,-221,-141v0,-90,31,-228,-55,-240r0,-104v87,-11,55,-151,55,-240v0,-131,92,-155,221,-141r0,104v-58,-3,-105,1,-105,61r0,143","w":500},"|":{"d":"189,-750r122,0r0,1000r-122,0r0,-1000","w":500},"}":{"d":"205,-115v-2,-67,19,-100,60,-125v-41,-25,-60,-58,-60,-125r0,-143v7,-60,-47,-65,-105,-61r0,-104v130,-15,221,13,221,141v0,90,-31,228,55,240r0,104v-87,11,-55,151,-55,240v0,101,-55,149,-157,143r-64,-2r0,-104v58,3,105,-1,105,-61r0,-143","w":500},"~":{"d":"394,-699v54,20,97,-2,114,-46r70,40v-27,84,-113,162,-227,115v-38,-15,-73,-36,-120,-36v-40,0,-59,35,-71,63r-70,-40v26,-78,79,-164,192,-134v26,7,80,26,112,38","w":668},"-":{"d":"40,-286r260,0r0,112r-260,0r0,-112","w":340},"\u00ad":{"d":"40,-286r260,0r0,112r-260,0r0,-112","w":340},"\"":{"d":"335,-399r-90,0r-23,-268r136,0xm155,-399r-90,0r-23,-268r136,0","w":400},"!":{"d":"126,13v-43,0,-78,-35,-78,-78v0,-43,35,-78,78,-78v43,0,78,35,78,78v0,43,-35,78,-78,78xm64,-203r0,-464r124,0r0,464r-124,0","w":252},"\u0401":{"d":"372,-739v-37,0,-72,-35,-72,-72v0,-37,35,-72,72,-72v37,0,72,35,72,72v0,37,-35,72,-72,72xm148,-739v-37,0,-72,-35,-72,-72v0,-37,35,-72,72,-72v37,0,72,35,72,72v0,37,-35,72,-72,72xm446,-555r-240,0r0,149r230,0r0,112r-230,0r0,182r240,0r0,112r-370,0r0,-667r370,0r0,112","w":496},"\u0451":{"d":"370,-514v-37,0,-72,-35,-72,-72v0,-37,35,-72,72,-72v37,0,72,35,72,72v0,37,-35,72,-72,72xm162,-514v-37,0,-72,-35,-72,-72v0,-37,35,-72,72,-72v37,0,72,35,72,72v0,37,-35,72,-72,72xm371,-274v-8,-76,-104,-113,-167,-66v-20,14,-33,37,-38,66r205,0xm270,-82v49,1,82,-25,101,-57r112,18v-33,76,-98,135,-213,135v-115,0,-185,-58,-218,-137v-24,-57,-19,-150,6,-199v40,-78,103,-125,207,-125v155,0,220,94,221,251r-324,0v2,70,36,112,108,114","w":522},"\u0410":{"d":"433,-246r-94,-240r-96,240r190,0xm471,-140r-269,0r-59,140r-141,0r289,-681r98,0r281,681r-140,0","w":672},"\u0411":{"d":"392,-199v0,-90,-90,-95,-186,-91r0,178v94,3,185,0,186,-87xm526,-200v0,134,-90,201,-229,200r-221,0r0,-667r386,0r0,112r-256,0r0,153v184,-12,320,34,320,202","w":570},"\u0412":{"d":"392,-201v0,-83,-92,-96,-186,-89r0,184v96,5,186,-5,186,-95xm344,-477v0,-73,-61,-88,-138,-84r0,171v77,4,138,-11,138,-87xm526,-189v0,124,-97,189,-226,189r-224,0r0,-667r165,0v134,-5,222,54,225,180v1,67,-34,108,-75,131v87,16,135,71,135,167","w":570},"\u0413":{"d":"430,-555r-224,0r0,555r-130,0r0,-667r354,0r0,112","w":436},"\u0414":{"d":"266,-377v1,129,-16,207,-75,265r269,0r0,-443r-194,0r0,178xm590,-667r0,555r70,0r0,262r-120,0r0,-150r-410,0r0,150r-120,0r0,-262v115,-18,130,-128,130,-265r0,-290r450,0","w":670},"\u0415":{"d":"446,-555r-240,0r0,149r230,0r0,112r-230,0r0,182r240,0r0,112r-370,0r0,-667r370,0r0,112","w":496},"\u0416":{"d":"509,-667r0,282r222,-282r148,0r-255,308r264,359r-150,0r-214,-299r-15,15r0,284r-124,0r0,-284r-15,-15r-214,299r-150,0r264,-359r-255,-308r148,0r222,282r0,-282r124,0","w":894},"\u0417":{"d":"387,-491v0,-112,-189,-86,-229,-24r-68,-89v54,-47,111,-78,205,-78v126,0,219,52,219,174v0,67,-34,115,-82,141v77,17,124,84,124,172v0,145,-115,207,-265,210v-120,2,-205,-50,-251,-126r85,-81v28,61,85,99,169,99v74,0,128,-30,128,-99v0,-102,-103,-104,-206,-102r0,-112v87,5,171,-4,171,-85","w":600},"\u0418":{"d":"206,-667r0,448r368,-463r90,0r0,682r-130,0r0,-450r-368,463r-90,0r0,-680r130,0","w":740},"\u0419":{"d":"550,-844v-26,66,-87,112,-180,112v-93,0,-154,-46,-180,-112r90,-36v19,76,161,76,180,0xm206,-667r0,448r368,-463r90,0r0,682r-130,0r0,-450r-368,463r-90,0r0,-680r130,0","w":740},"\u041a":{"d":"206,-385r245,-282r164,0r-282,308r297,359r-172,0r-237,-299r-15,15r0,284r-130,0r0,-667r130,0r0,282","w":636},"\u041b":{"d":"47,-106v90,-3,93,-87,93,-179r0,-382r454,0r0,667r-130,0r0,-555r-194,0r0,296v11,179,-77,290,-260,259r0,-112v11,3,23,6,37,6","w":670},"\u041c":{"d":"166,-679r90,0r181,436r189,-436r90,0r112,679r-132,0r-60,-411r-183,420r-36,0r-175,-420r-68,411r-132,0","w":870},"\u041d":{"d":"206,-409r282,0r0,-258r130,0r0,667r-130,0r0,-297r-282,0r0,297r-130,0r0,-667r130,0r0,258","w":694},"\u041e":{"d":"178,-333v0,141,82,230,222,230v140,0,222,-89,222,-230v0,-141,-82,-231,-222,-231v-140,0,-222,90,-222,231xm143,-584v74,-81,258,-130,401,-72v124,51,212,155,212,323v0,168,-88,272,-212,322v-85,35,-203,35,-288,0v-124,-50,-212,-154,-212,-322v0,-109,44,-191,99,-251","w":800},"\u041f":{"d":"604,-667r0,667r-130,0r0,-555r-268,0r0,555r-130,0r0,-667r528,0","w":680},"\u0420":{"d":"380,-458v0,-88,-80,-102,-174,-97r0,196v97,7,174,-11,174,-99xm514,-455v0,136,-82,207,-224,208r-84,0r0,247r-130,0r0,-667r194,0v153,-4,244,68,244,212","w":534},"\u0421":{"d":"404,-103v70,0,122,-31,156,-73r0,152v-91,58,-287,44,-364,-17v-86,-68,-152,-151,-152,-292v0,-175,93,-284,219,-329v95,-34,219,-27,297,21r0,152v-38,-43,-88,-75,-161,-75v-139,0,-221,95,-221,233v0,142,90,228,226,228","w":604},"\u0422":{"d":"286,-555r0,555r-130,0r0,-555r-150,0r0,-112r430,0r0,112r-150,0","w":442},"\u0423":{"d":"154,-667r169,336r143,-336r142,0r-309,667r-142,0r93,-186r-248,-481r152,0","w":610},"\u0424":{"d":"652,-354v0,-105,-60,-154,-172,-150r0,300v109,6,172,-44,172,-150xm350,-504v-105,-3,-172,42,-172,150v0,106,62,155,172,150r0,-300xm786,-354v0,184,-116,265,-306,262r0,92r-130,0r0,-92v-189,3,-306,-78,-306,-262v0,-184,116,-265,306,-262r0,-78r130,0r0,78v189,-3,306,78,306,262","w":830},"\u0425":{"d":"244,-352r-199,-315r156,0r117,207r123,-207r156,0r-205,315r228,352r-156,0r-146,-244r-154,244r-156,0","w":640},"\u0426":{"d":"76,-667r130,0r0,555r264,0r0,-555r130,0r0,555r80,0r0,262r-120,0r0,-150r-484,0r0,-667","w":690},"\u0427":{"d":"308,-371v34,-1,75,-2,106,-7r0,-289r130,0r0,667r-130,0r0,-266r-119,7v-153,1,-245,-53,-245,-203r0,-205r130,0r0,182v-3,81,41,117,128,114","w":620},"\u0428":{"d":"76,-667r130,0r0,555r214,0r0,-555r130,0r0,555r214,0r0,-555r130,0r0,667r-818,0r0,-667","w":970},"\u0429":{"d":"76,-667r130,0r0,555r214,0r0,-555r130,0r0,555r214,0r0,-555r130,0r0,555r80,0r0,262r-120,0r0,-150r-778,0r0,-667","w":984},"\u042a":{"d":"472,-202v1,-94,-96,-96,-196,-92r0,182v96,2,196,6,196,-90xm606,-202v0,134,-87,202,-225,202r-235,0r0,-555r-140,0r0,-112r270,0r0,261r104,0v132,0,226,70,226,204","w":626},"\u042b":{"d":"724,-667r0,667r-130,0r0,-667r130,0xm402,-202v1,-94,-96,-96,-196,-92r0,182v96,2,196,6,196,-90xm536,-202v0,134,-87,202,-225,202r-235,0r0,-667r130,0r0,261r104,0v132,0,226,70,226,204","w":800},"\u042c":{"d":"402,-202v1,-94,-96,-96,-196,-92r0,182v96,2,196,6,196,-90xm536,-202v0,134,-87,202,-225,202r-235,0r0,-667r130,0r0,261r104,0v132,0,226,70,226,204","w":556},"\u042d":{"d":"367,-12v-87,41,-253,30,-323,-12r0,-152v63,79,226,98,312,29v38,-30,68,-73,77,-132r-299,0r0,-112r297,0v-19,-104,-89,-173,-206,-173v-81,0,-137,32,-181,75r0,-152v53,-28,106,-41,174,-41v227,0,349,133,349,349v0,171,-80,265,-200,321","w":611},"\u042e":{"d":"428,-333v0,139,74,230,210,230v136,0,210,-91,210,-230v0,-141,-77,-231,-210,-231v-133,0,-210,91,-210,231xm298,-409v23,-123,93,-204,193,-247v80,-35,205,-36,287,0v121,51,204,157,204,323v0,166,-84,271,-204,322v-80,34,-204,35,-282,2v-115,-48,-187,-138,-202,-288r-88,0r0,297r-130,0r0,-667r130,0r0,258r92,0","w":1026},"\u042f":{"d":"196,-461v0,89,75,105,166,101r0,-201v-90,-4,-166,12,-166,100xm62,-461v0,-141,96,-206,237,-206r193,0r0,667r-130,0r0,-258r-24,0r-170,258r-156,0r198,-270v-89,-17,-148,-84,-148,-191"},"\u0430":{"d":"402,-217v0,-74,-46,-122,-120,-122v-74,0,-120,48,-120,122v0,74,46,123,120,123v74,0,120,-49,120,-123xm251,-447v66,0,112,26,139,70r0,-56r122,0r0,433r-122,0r0,-56v-30,42,-68,70,-133,70v-139,0,-221,-93,-221,-231v0,-137,79,-230,215,-230","w":570},"\u0431":{"d":"170,-216v2,75,47,122,122,122v75,0,120,-47,122,-122v2,-69,-51,-123,-122,-123v-71,0,-124,54,-122,123xm295,14v-172,1,-251,-104,-251,-276v0,-227,67,-368,261,-398v55,-8,82,-20,99,-60r112,0v-17,128,-133,155,-248,184v-65,17,-103,71,-111,148r2,0v28,-38,92,-54,152,-59v209,-18,301,268,156,400v-44,41,-94,60,-172,61","w":576},"\u0432":{"d":"298,-142v-1,-52,-67,-39,-118,-41r0,87v55,0,119,9,118,-46xm284,-299v1,-49,-57,-36,-104,-38r0,76v47,0,103,7,104,-38xm424,-124v-2,86,-58,124,-143,124r-223,0r0,-433r191,0v81,-4,145,33,145,111v0,43,-26,75,-60,89v50,11,92,45,90,109","w":456},"\u0433":{"d":"58,-433r276,0r0,104r-154,0r0,329r-122,0r0,-433","w":340},"\u0434":{"d":"208,-329v0,93,8,186,-48,225r176,0r0,-225r-128,0xm4,-104v126,-12,88,-194,94,-329r360,0r0,329r64,0r0,230r-110,0r0,-126r-298,0r0,126r-110,0r0,-230","w":530},"\u0435":{"d":"371,-274v-8,-76,-104,-113,-167,-66v-20,14,-33,37,-38,66r205,0xm270,-82v49,1,82,-25,101,-57r112,18v-33,76,-98,135,-213,135v-115,0,-185,-58,-218,-137v-24,-57,-19,-150,6,-199v40,-78,103,-125,207,-125v155,0,220,94,221,251r-324,0v2,70,36,112,108,114","w":522},"\u0436":{"d":"389,-433r0,168r130,-168r142,0r-165,197r174,236r-148,0r-117,-170r-16,18r0,152r-110,0r0,-152r-16,-18r-117,170r-148,0r174,-236r-165,-197r142,0r130,168r0,-168r110,0","w":668},"\u0437":{"d":"264,-307v0,-67,-126,-48,-162,-10r-56,-76v83,-77,325,-87,328,67v0,50,-30,75,-60,93v51,14,90,44,90,109v0,179,-300,164,-378,66r60,-74v27,28,71,46,116,46v42,0,76,-11,76,-49v0,-53,-71,-44,-126,-44r0,-88v49,-1,112,8,112,-40","w":440},"\u0438":{"d":"180,-433r0,267r200,-267r122,0r0,433r-122,0r0,-267r-200,267r-122,0r0,-433r122,0","w":560},"\u0439":{"d":"280,-587v41,-1,77,-25,84,-63r80,38v-25,111,-222,136,-298,51v-13,-13,-23,-30,-30,-51r80,-38v7,35,42,64,84,63xm180,-433r0,267r200,-267r122,0r0,433r-122,0r0,-267r-200,267r-122,0r0,-433r122,0","w":560},"\u043a":{"d":"180,-433r0,168r162,-168r152,0r-196,193r206,240r-156,0r-150,-179r-18,18r0,161r-122,0r0,-433r122,0","w":500},"\u043b":{"d":"8,-104v55,10,84,-22,84,-74r0,-255r350,0r0,433r-122,0r0,-329r-118,0r0,159v2,119,-70,188,-194,170r0,-104","w":500},"\u043c":{"d":"91,-445r90,0r119,261r119,-261r90,0r79,445r-122,0r-36,-235r-112,244r-36,0r-112,-244r-36,235r-122,0","w":600},"\u043d":{"d":"58,-433r122,0r0,153r170,0r0,-153r122,0r0,433r-122,0r0,-176r-170,0r0,176r-122,0r0,-433","w":530},"\u043e":{"d":"162,-216v0,74,48,122,122,122v74,0,122,-48,122,-122v0,-74,-48,-123,-122,-123v-74,0,-122,49,-122,123xm109,-386v46,-54,185,-78,279,-44v108,39,183,179,124,310v-37,83,-107,134,-228,134v-121,0,-187,-53,-228,-134v-47,-94,-5,-223,53,-266"},"\u043f":{"d":"468,-433r0,433r-122,0r0,-329r-166,0r0,329r-122,0r0,-433r410,0","w":526},"\u0440":{"d":"408,-217v0,-74,-46,-122,-120,-122v-74,0,-120,48,-120,122v0,74,46,123,120,123v74,0,120,-49,120,-123xm318,14v-65,0,-107,-28,-138,-70r0,288r-122,0r0,-665r122,0r0,56v30,-42,74,-70,141,-70v137,0,213,93,213,230v0,138,-79,231,-216,231","w":570},"\u0441":{"d":"267,-447v48,0,84,9,117,26r0,120v-25,-22,-54,-38,-100,-38v-77,0,-122,46,-122,122v0,77,49,123,126,123v39,0,71,-13,96,-38r0,119v-48,28,-144,37,-206,9v-82,-36,-142,-95,-142,-211v0,-143,94,-232,231,-232","w":418},"\u0442":{"d":"248,-329r0,329r-122,0r0,-329r-120,0r0,-104r362,0r0,104r-120,0","w":374},"\u0443":{"d":"208,-65r-206,-368r142,0r134,246r120,-246r138,0r-349,665r-138,0","w":538},"\u0444":{"d":"406,-102v140,18,165,-199,40,-225v-13,-3,-27,-5,-40,-4r0,229xm284,-331v-136,-19,-168,196,-42,224v14,3,28,5,42,5r0,-229xm654,-217v0,151,-97,222,-248,223r0,226r-122,0r0,-226v-151,-1,-248,-72,-248,-223v0,-150,99,-223,248,-222r0,-228r122,0r0,228v149,-1,248,72,248,222","w":690},"\u0445":{"d":"208,-236r-166,-197r154,0r88,112r90,-112r154,0r-169,197r205,236r-156,0r-124,-151r-126,151r-156,0","w":566},"\u0446":{"d":"58,-433r122,0r0,329r162,0r0,-329r122,0r0,329r70,0r0,230r-110,0r0,-126r-366,0r0,-433","w":542},"\u0447":{"d":"164,-305v-8,71,78,69,140,57r0,-185r122,0r0,433r-122,0r0,-148v-124,30,-262,1,-262,-132r0,-153r122,0r0,128","w":484},"\u0448":{"d":"58,-433r122,0r0,329r140,0r0,-329r122,0r0,329r140,0r0,-329r122,0r0,433r-646,0r0,-433","w":762},"\u0449":{"d":"58,-433r122,0r0,329r140,0r0,-329r122,0r0,329r140,0r0,-329r122,0r0,329r70,0r0,230r-110,0r0,-126r-606,0r0,-433","w":782},"\u044a":{"d":"352,-142v-1,-52,-67,-39,-118,-41r0,87v55,0,119,9,118,-46xm478,-142v-1,92,-55,142,-143,142r-223,0r0,-329r-106,0r0,-104r228,0r0,154v133,-8,246,8,244,137","w":504},"\u044b":{"d":"592,-433r0,433r-122,0r0,-433r122,0xm298,-142v-1,-52,-67,-39,-118,-41r0,87v55,0,119,9,118,-46xm424,-142v-1,92,-55,142,-143,142r-223,0r0,-433r122,0r0,154v133,-8,246,8,244,137","w":650},"\u044c":{"d":"298,-142v-1,-52,-67,-39,-118,-41r0,87v55,0,119,9,118,-46xm424,-142v-1,92,-55,142,-143,142r-223,0r0,-433r122,0r0,154v133,-8,246,8,244,137","w":450},"\u044d":{"d":"168,15v-43,0,-101,-8,-134,-24r0,-118v58,59,238,65,235,-48r-179,0r0,-88r179,0v-12,-105,-160,-106,-233,-51r0,-106v99,-44,241,-33,301,38v33,39,61,92,61,166v0,147,-85,231,-230,231","w":434},"\u044e":{"d":"352,-216v0,73,45,122,118,122v73,0,118,-49,118,-122v0,-74,-44,-123,-118,-123v-74,0,-118,49,-118,123xm642,-47v-124,107,-396,61,-403,-119r-59,0r0,166r-122,0r0,-433r122,0r0,163r59,0v24,-113,101,-177,231,-177v119,0,185,53,224,134v45,94,2,219,-52,266","w":750},"\u044f":{"d":"170,-287v0,53,57,48,110,47r0,-97v-56,-3,-110,-2,-110,50xm44,-288v0,-105,82,-145,186,-145r172,0r0,433r-122,0r0,-152r-14,0r-106,152r-140,0r128,-162v-63,-12,-104,-50,-104,-126","w":460}}});